#ifndef FC2_PARAMS_H
#define FC2_PARAMS_H

const float fc2_weights[5120] = { -0.103078976, 0.07655323, 0.02592402, 0.041158147, 0.04006831, -0.019530889, 0.06221914, 0.61110073, -0.0012559923, 0.0011754774, 0.032560218, -0.8289147, -0.0030301637, 0.061356764, -0.28643003, 0.007258881, -0.566404, 0.16233689, -0.41405678, -0.21771848, 0.03189528, -0.019132324, 0.19474688, -0.43351114, -0.012764306, -0.13452406, 0.3381726, 0.15092988, -0.09192695, -0.16093437, 0.07211872, -0.006608934, -0.029705329, -0.001548052, 0.010105603, -0.2528826, -0.43824136, 0.06164158, -0.01829243, 0.008797199, -0.03079478, -0.079986915, 0.033871576, -0.050732397, 0.06906722, -0.036344077, 0.021500697, 0.013375952, -0.4028362, -0.016873453, -0.26762435, -0.009650583, -0.0050660367, -0.0014099961, -0.0025569245, -0.016456826, -0.019501893, 0.023527728, -0.005567649, -0.20720135, -0.017357364, -0.5608355, 0.015354586, -0.20763445, -0.049490374, 0.040270563, -0.028779233, 0.30659774, 0.091568306, 0.42537668, -0.08896593, -0.044530842, -0.009073328, -0.45854384, 0.16555043, -0.034863897, 0.044395685, 0.0041809925, -0.005625855, 0.027986316, 0.12145359, 0.027425544, -0.017783679, 0.07356615, 0.015635405, 0.0015716911, -0.12775318, -0.3778468, 0.37357977, 0.6642317, -0.013041833, -0.16529901, -0.0739229, -0.0026311018, -0.49689308, 0.008620028, -0.09843774, 0.21935049, 0.07204715, -0.0049257004, -0.07769244, 0.3183383, 0.12376749, 0.09366573, -0.002770448, -0.026716877, 0.0053002047, -0.008128071, 0.022347517, -0.02336289, -0.051879697, -0.27961725, -0.00037781877, 0.014161842, -0.8438154, -0.22233912, -0.010124963, -0.18880497, 0.058540165, -0.09388163, -0.79422283, 0.341199, 0.0043592816, 0.032604303, -0.0020400707, -0.011042355, -0.13064232, 0.094748825, 0.3338858, -0.072140895, -0.5803559, -0.59534216, 0.04788868, 0.047524583, -0.124057546, 0.114630714, -0.109008856, 0.041945778, -0.017758137, -0.035567477, 0.28500658, -0.31635925, -0.36816618, -0.35264233, -0.14258082, -0.008669463, -0.49493456, 0.0127413105, 0.096202224, -0.006121925, -0.0011603982, 0.031296015, -0.11259519, 0.010151672, 0.18147235, 0.10606088, 0.24908933, 0.07774704, -0.18724978, 0.04820474, -0.66247, 0.005323487, -0.0005489327, -0.00032758445, -0.033025604, 0.013611377, 0.0010309166, -0.1948205, 0.1224772, 0.2083371, 0.17254284, 0.7514223, -0.17660819, 0.04056893, -0.22269335, -0.6537278, -0.0033867294, 0.00735859, 0.0009578002, -0.37031347, 0.060411748, 0.015986769, 0.12765089, -0.012391082, 0.17591871, -0.23018588, -0.008453662, 0.024641737, 0.5181013, 0.0017634274, 0.011408228, -0.38932255, -0.54928726, -0.71573806, -0.012671088, 0.022654915, 0.19394581, 0.07663408, -0.0017765453, -0.07640137, 0.020726267, -0.4059065, -0.000905965, -0.0037764073, 0.008202209, 0.3972507, 0.03138574, -0.11008144, 0.23777814, -0.00097260333, 0.0047426834, 0.01221972, 0.114356354, 0.0086729145, -0.019174736, -0.12330286, -0.49108785, 0.12454722, -0.7670797, -0.015321826, 0.03753612, -0.06993045, -0.15834896, 0.10605903, 0.36108956, 0.1802285, -0.19014338, -0.0022802101, -0.7022871, 0.12878282, 0.00052023045, 0.0043159677, -0.059028566, -0.15665552, 0.09239591, -0.10441873, -0.028079191, -0.19076422, 0.0013212094, -0.23232372, 0.015212917, -0.12045253, -0.001323567, -0.07121021, 0.064523846, 0.13777944, 0.012772367, 0.07390767, -0.019909851, 0.17552158, -0.013312147, 0.1045382, -0.0014809823, 0.022660814, -0.15146884, -0.02321274, 0.14187022, -0.065430686, -0.15204443, 0.014992264, 0.23401563, -0.018861199, -0.0073783817, -0.14564182, -0.089369655, 0.07764712, -0.04742067, -0.015182571, 0.35091254, -0.06862964, 0.0017054784, 0.08747069, 0.6700318, 0.05986459, -0.0833254, 0.53866845, 0.40189245, -0.08799111, -0.008921392, 0.006010186, -0.033303667, -0.00042331778, 0.016386442, -0.027645903, 0.3086261, 0.09159353, -0.23076394, -0.06558348, 0.005228178, -0.653899, 0.05207742, -0.013860788, 0.007981896, 0.19148386, -0.009764811, 0.054044463, -0.012867239, -0.16219316, 0.03509199, -0.61294234, -0.22196928, 0.15848884, -0.10096355, -0.13887858, 0.04195437, -0.2130492, 0.018250836, 0.07920124, 0.24611205, -0.32525137, 0.14468244, -0.19861762, -0.16414668, -0.007360566, -0.6440504, 0.029128408, -0.035759393, 0.17223214, -0.0061358097, -0.15872529, 0.0058397837, 0.028400403, 0.073444515, 0.8270848, -0.012371495, -0.13277276, -0.007982124, 0.09188403, 0.09375103, 0.00014811012, 0.0011466227, 0.010965918, 0.028380834, -0.10351682, 0.057801776, 0.08708935, -0.12756613, 0.30086103, 0.08193657, 0.011591078, 0.01839273, 0.022916598, -0.0009487989, -0.01021384, -0.42749715, 0.007685285, 0.010098764, 0.42285022, 0.21442692, -0.3829178, -0.020754334, 0.009846809, 0.18359235, -0.15257911, 0.059014942, 0.09597306, 0.15357967, 0.12819754, 0.02955648, -0.026747994, 0.7078458, -0.0152936755, 0.23051117, -0.017872564, -0.022679308, -0.08838526, 0.23626898, 0.00810526, -0.42739367, 0.24053682, -0.23267902, 0.028495258, 0.09076627, -0.65561897, -0.020765364, -0.6110629, 0.14408822, -0.3189923, 0.4145558, -0.0065011475, 0.29684934, -0.0060787457, -0.59158826, 0.002299698, -0.33972138, 0.0041767643, 0.48943335, 0.531641, 0.046790894, 0.17444366, 0.000601106, 0.25301492, -0.04819662, 0.61378795, -0.16439423, -0.038435012, -0.9188683, -0.12717435, 0.039041106, -0.06791749, 0.021316096, -0.26588285, 0.13094394, -0.5338276, 0.0021349855, 0.17377819, -0.93051565, -0.2547531, -0.014779747, -0.010890317, 0.005697847, 0.009295255, -0.009640464, -0.18029243, -0.0025119968, 0.2465324, 0.1892847, 0.0034527665, -0.043869417, 0.017787317, 0.176219, -0.24443024, 0.026238574, 0.1242798, 0.003324758, 0.22324781, -0.65519214, 0.0002533586, 0.5922655, 0.49584818, 0.13717175, -0.0352804, 0.1436671, 0.15816556, -0.29121554, -0.07023366, 0.5639918, -0.10694078, -0.04592055, -0.8955251, 0.020517569, -0.010914204, -0.11118672, -0.052799843, 0.00636539, 0.020070536, 0.5199673, -0.049848393, 0.008831345, 0.62947625, 0.0075731766, -0.061969504, 0.05915406, -0.28130525, -0.008785033, 0.018940112, -0.021874204, 0.3068157, 0.09298394, -0.16413856, -0.60964257, 0.016994063, -0.040582076, 0.06287234, 0.11990616, 0.0043592043, -0.010222451, 0.038414765, -0.0061725476, -0.4199792, 0.15163782, -0.3363032, 0.0028883927, 0.0006811119, 0.08944469, -0.008018502, 0.008444423, 0.26430777, -1.7115151e-05, -0.6074261, 0.003452825, 0.13469096, 0.075729296, 0.38463292, 0.09556616, -0.17210153, 0.5030467, -0.5031006, -0.1941456, 0.11145423, -0.03165236, -0.02351451, -0.54677904, -0.031528216, -0.11128603, 0.13879679, -0.011381459, 0.48868644, 0.117321454, -0.016468061, -0.3919542, 0.97207785, 0.020760896, -0.022929108, -0.0033917732, 0.8062862, 0.123952284, -0.03656981, -0.58150643, 0.023230905, 0.1162932, -0.5739085, -0.20283571, 0.029173613, 0.026681405, 0.0043910886, -0.019329822, -0.004717942, -0.1808007, 0.33870608, 0.008138719, -0.023804685, -0.24422729, 0.34951374, 0.014041705, -0.053589344, 0.052948765, 0.017421655, 0.14776495, -0.31181052, -0.3810396, 0.08987363, 0.028460136, 0.0008211186, -0.043463405, -0.32838786, 0.0025776257, 0.17014751, -0.36582732, -0.039338388, -0.1352694, 0.10447084, -0.13862036, -0.016480375, -0.0072784, 0.006717775, 0.0017795359, 0.18305673, 0.35910952, 0.0023988544, -0.017711505, 0.0062781284, -0.0055266432, -0.10406468, 0.07292824, 0.021149, -0.097519666, -0.007546898, 0.013100617, 0.011593782, -0.09417795, -0.029716486, 0.18074961, -0.01340954, -0.0013071673, 0.0035300928, -0.010863361, -0.03817249, -0.026061118, 0.010868203, 0.011728234, 0.010132496, -0.09982192, 0.74263835, -0.012365315, 0.100379005, -0.3294949, -0.04699493, 0.05774033, -0.21351872, 0.18021543, 0.40540367, -0.11392869, 0.023075942, 0.00026239862, 0.55885226, -0.14612144, 0.03977087, -0.022624733, -0.046472855, -0.020077817, -0.07627176, 0.046829186, 0.03523719, -0.046981413, -0.063357376, 0.023509268, -0.0079117315, -0.22270422, -0.6122344, 0.32591277, 0.39622355, -0.02548219, -0.025546243, 0.0060300636, 0.096149355, 0.69807786, -0.00048192716, -0.11084043, 0.06299234, -0.06749915, -0.0053071748, 0.08747465, -0.37687513, 0.050422356, -0.01764986, -0.021168146, -0.008940267, -0.71418893, -0.012347518, 0.003970093, -0.009485312, 0.014858562, -0.5781728, -0.012882427, 0.031033399, 0.34545025, 0.07171396, 0.13003951, 0.59960586, -0.12261182, 0.037110757, -0.18344717, 0.58457965, -0.009694836, -0.053358436, 0.013234826, -0.02080294, 0.078070424, -0.061698116, 0.49979964, -0.0071465615, 0.39477423, 0.3730859, -0.09695934, 0.25477836, -0.23770958, 0.026426341, 0.09134173, -0.11418558, -0.019725136, -0.008829813, 0.27959862, 0.2055264, 0.22193122, -0.05969644, 0.28072792, 0.0008756923, 0.092673935, 0.014089691, -0.06037472, -0.017051423, 0.013246884, -0.15308672, 0.016701555, 0.01907881, 0.05586336, -0.13027802, -0.006790995, -0.088489175, 0.12470864, -0.18122655, 0.069241785, 0.0026686208, -0.014901353, 0.04666998, -0.011222169, -0.0008873463, 0.036388732, 0.1462446, -0.05507214, -0.04110838, -0.17353143, -0.75302815, 0.59969336, -0.057194155, -0.13411322, -0.6624957, 0.0040715015, 0.0047423737, 0.008288914, 0.47209457, -0.19513968, 0.020626197, 0.04052299, -0.055074584, -0.0688081, 0.18383102, 0.026469573, 0.0015122885, -0.22323702, -0.00074495183, -0.0012906953, 0.051100917, -0.20014544, 0.63578314, -0.029367734, 0.004814292, 0.003397289, 0.17056485, -0.08774296, 0.07129887, -0.0056096613, 0.098416984, -0.012085814, 0.005146611, 0.11305682, 0.30429295, 0.030957218, 0.044893853, -0.1230087, -0.017332928, -0.007350872, -0.01352589, 0.04104505, 0.0042556273, -0.026875842, 0.1062877, -0.1061291, 0.043334067, 0.031604297, 0.0013719139, -0.06338492, 0.003243265, 0.001308172, 0.45259815, -0.18307185, -0.0775711, 0.06836968, 0.0021093125, -0.04836413, 0.738973, 0.01750206, 0.0066473577, 0.15368506, 0.06701365, -0.020812856, -0.6136134, -0.11226101, -0.030606234, -0.15414478, 0.085324034, 0.026346121, 0.25089285, -0.0115716485, 0.039988745, 0.078231476, 0.049302023, 0.008452665, 0.018658116, -0.016625492, 0.09151974, -0.12219908, 0.09722491, 0.14765641, 0.0028513237, 0.11437966, -0.0067727584, 0.20073171, -0.107985884, -0.20811038, 0.008793918, 0.21997838, 0.036942743, -0.009071802, -0.04484745, 0.15507595, -0.009278622, 0.24523675, -0.016933598, -0.08216855, -0.042789716, 0.009608362, -0.017111808, -0.57714283, -0.047062133, -0.48478377, -0.45355257, 0.2921202, -0.0151334265, -0.00927449, -0.0043654274, 0.03994105, -0.0017492614, -0.007134615, 0.039407205, -0.04213402, 0.26884848, 0.40737838, -0.016398998, -0.019942477, -0.4031166, 0.13421077, -0.007801966, -0.0044108415, 0.07454412, 0.016046377, -0.08450764, 0.0039751525, -0.3178836, 0.018185744, -0.6317497, 0.038683493, 0.01957241, -0.033223733, 0.12693566, 0.08260378, -0.045612555, 0.028005367, 0.14359502, -0.6854027, -0.18881732, 0.099374786, -0.017452791, -0.08843451, -0.003075659, -0.18464218, 0.018039614, 0.014173883, 0.0037687402, 0.012010864, 0.1281675, 0.0045057563, 0.025752297, -0.08553463, -0.07735563, -0.008509727, 0.025908163, 0.74429333, 0.0060094055, 0.45531508, -0.024205195, -0.02193274, 0.016188355, 0.0017590906, 0.08916101, 0.124893464, -0.41341403, -0.03161531, 0.1879845, -0.1405908, 0.007162048, 0.040638402, 0.003695256, -0.0056403796, -0.004505937, 0.6253794, 0.006065105, 0.025856977, -0.09383706, 0.028107952, -0.12899725, -0.017317466, 0.0007948196, -0.028357351, -0.5654716, 0.0345494, -0.09113643, 0.117935404, -0.061676707, 0.08507949, -0.0053147767, 0.18282558, -0.0049974397, -0.038013116, -0.012591116, -0.0034165368, 0.26053756, -0.16767743, 0.0022829524, -0.117054805, -0.14982484, 0.14126782, -0.0400822, 0.033597663, -0.22212239, -0.014873006, 0.25613043, 0.05427802, 0.14468852, 0.10738628, 0.0048282943, -0.2000028, 0.045411333, -0.22705951, -0.006324259, -0.4463944, 0.061040636, 0.41566232, -0.060792644, 0.007433371, -0.5428233, 0.030740047, -0.07095798, -0.07136058, 0.0021026118, 0.036319915, 0.13319463, -0.28714445, 0.14425112, 0.024605038, -0.018772254, 0.014757589, -0.11453099, -0.076563075, -0.31379807, -0.037589688, -0.09874439, -0.26756355, 0.5921582, -0.004189153, 0.008032466, 0.013411278, -0.0047558807, -0.0051377704, -0.13430008, 0.024699278, -0.18462253, -0.09571532, -0.011448639, -0.10667395, 0.13193841, -0.047655262, 0.18546315, 0.0123610785, 0.12409835, 0.016177112, 0.015145338, 0.44158494, -0.0129204765, -0.1168782, -0.3870001, -0.031016031, -0.5013954, -0.17605644, -0.029580409, 0.1394501, -0.06474143, -0.56306475, 0.028577676, 0.1433854, -0.39159718, 0.015057128, -0.004293503, -0.09040585, 0.10305593, 0.0011824763, 0.020912282, -0.4510433, 0.13523586, 0.08276174, 0.30322468, -0.013988878, 0.15773384, 0.1875403, 0.17359327, 0.0017681792, -0.011011644, 0.022475518, 0.6690451, -0.033251643, -0.04416174, -0.14571488, 0.002657979, -0.13085459, 0.4210417, 0.01098149, -0.003924501, 0.00962324, 0.011208959, -0.012568226, -0.6600448, 0.16278392, 0.05034471, -0.042039596, -0.004036929, -0.10670243, 0.010160378, -0.12799047, -0.033042982, -0.018329546, -0.11772016, 0.008750931, 0.6567953, -0.23889379, -0.6985747, 0.042748734, 0.23199396, 0.5125925, 0.21873328, -0.43022525, -0.09967014, -0.011763781, -0.01253398, 0.44074973, -0.033928506, -0.066570885, -0.09214619, 0.013565105, 0.08915954, -0.061084893, 0.12176341, -0.26789638, -0.6003335, -0.04871228, 0.022109311, -0.023189895, 0.45375714, -0.114994936, -0.024286196, 0.22943926, -0.0063671917, -0.007809708, -0.18972802, 0.18853338, -0.04693857, 0.026897741, -0.03621937, -0.013448162, 0.0048216325, 0.11276212, 0.31899995, 0.021342989, -0.009794366, -0.23490115, 0.35500965, -0.0023321153, -0.016193144, 0.27964178, -0.0090402, -0.25839934, -0.31015742, -0.31321365, -0.13315082, 0.03740527, -0.0114125265, -0.010846058, 0.42331693, 0.0056884605, -0.22638713, 0.006099203, -0.096649386, -0.08639203, 0.028125059, -0.1907336, 0.0023307197, -0.014939788, 0.004323884, 0.0036248197, 0.019679261, 0.23616357, -0.053884912, -0.0030430974, 0.007852702, -0.029025868, 0.18233986, 0.1712145, 0.06786827, -0.081868485, -0.012670485, 0.007281674, -0.00060926453, 0.0917393, -0.009205565, 0.010581108, -0.008030518, -0.0052885455, -0.008074929, -0.0011924023, -0.020750836, -0.029382085, 0.01928896, 0.0040476792, -0.14708461, 0.16959745, 0.5349073, -0.010048873, -0.017015686, -0.18347763, -0.06981773, -0.041816775, 0.20483372, -0.06301809, 0.46318045, -0.13058273, -0.21589309, 0.00064467516, -0.13209994, 0.17307574, 0.18685232, 0.14365254, -0.027678957, -0.000708164, -0.054188386, 0.0011591066, 0.03645921, 0.09780178, -0.15059789, 0.010206682, -0.016287135, -0.035089962, -0.5289143, -0.46339878, -0.74871933, -0.013430474, 0.11538828, 0.038226217, -0.009175617, 0.21255666, -0.0024742733, 0.09664183, -0.047657978, -0.03293695, 0.0043394673, -0.0116854515, -0.6796103, -0.089878455, -0.2288872, -0.011773265, -0.0050892998, -0.85693496, 0.011790382, -0.00053735543, 0.0034586268, -0.010749423, 0.6537732, 0.0025138604, 0.011225205, 0.44135806, -0.057420857, 0.039630637, -0.30006477, -0.0352476, 0.07575325, -0.46875912, 0.43482396, -0.013006809, 0.05629443, 0.005392916, -0.028931297, 0.07375773, 0.15102082, -0.3179061, -0.019491404, 0.19383754, 0.19787782, 0.017670631, 0.3327607, 0.084400155, 0.1253501, -0.0144914035, -0.017206836, -0.0017935622, -0.015556535, 0.43221784, 0.25710773, 0.011569292, 0.120151244, 0.27989793, -0.007979, -0.21433802, 0.0042541754, -0.10541711, 0.0098132985, 0.010054052, -0.11697049, -0.10900864, 0.027790302, -0.19962983, 0.14764588, 0.007894509, -0.03985518, -0.08385021, -0.03983378, 0.22501275, 0.00050899957, 0.005019526, -0.11961274, 0.0004152241, 0.018226955, -0.044433754, -0.04043188, -0.21304642, -0.5089858, -0.09960461, 0.30443993, 0.6196807, 0.08093635, -0.1560352, 0.66875505, 0.011907822, 0.006255221, -0.010115342, -0.07090053, -0.05046659, 0.007721764, -0.018167142, 0.027213482, -0.05031073, 0.31596693, 0.007599402, 0.00981377, -0.079779655, -0.015038876, -0.0013808112, 0.09537012, 0.025837135, -0.5147633, -0.018968977, 0.019638874, -0.020584991, -0.08227251, 0.13766898, -0.07436701, 0.003432719, 0.17853613, -0.009328419, -0.014078746, -0.5639289, 0.01235899, -0.023094075, 0.13571936, -0.08390531, -0.0014445549, -0.008207363, -0.005494113, 0.002735419, 0.007130938, -0.011776147, 0.014461719, 0.054322388, -0.049321212, 0.17078103, -0.012588754, -0.04891093, -0.06063459, 0.034113523, 0.23837516, 0.36544576, 0.07660136, -0.103747614, -0.004667079, 0.52739096, 0.22160284, -0.0100078015, -0.009750234, -0.08551197, 0.049508046, -0.14258382, -0.41290054, -0.03855747, -0.0934742, 0.035407733, -0.10827288, -0.05827864, -0.5254901, -0.0062089893, 0.06674851, 0.14701352, 0.3671609, -0.0070670643, -0.056609794, -0.0113773225, 0.118926026, 0.71755123, -0.117402, 0.14240918, 0.02272317, 0.12685713, -0.010498343, 0.45704788, -0.0044687693, 0.63961655, 0.0017960945, 0.5502389, -0.04697725, 0.0071024657, -0.077754654, -0.15239176, -0.04380971, -0.031302035, -0.02673653, 0.14337288, -0.08794999, 0.014867257, 0.040247086, 0.41343978, 0.104708835, 0.11741122, 0.21461707, 0.09427922, -0.22160362, -0.021491615, 0.010468233, 0.086096376, 0.006362742, -0.0011587818, -0.15949912, 0.21710803, -0.20999642, -0.51990837, 0.012277159, -0.012080597, -0.19484052, 0.17555425, -0.015721077, 0.009893104, -0.0077663045, -0.022151418, 0.008233824, -0.011726791, 0.1778609, 0.0031577917, -0.57644075, 0.2836267, -0.029611176, 0.055012826, 0.09471469, 0.12908968, 0.07291687, 0.007890966, -0.11239633, -0.04266254, 0.22667718, -0.041291695, -0.021800444, 0.06365682, -0.00815832, 0.3489521, -0.007301654, -0.07704422, 0.06693397, 0.0024499581, -0.13933416, 0.0074449666, 0.025112841, 0.041487355, -0.46517825, -0.0149397105, 0.019952927, -0.34580165, 0.10401882, -0.78502905, -0.004367923, -0.008630543, -0.009575833, 0.11742676, -0.06919221, -0.036264993, 0.33250147, 0.04851852, 0.1421788, 0.040755976, -0.00024646305, 0.012769645, 0.0067356606, -0.016010296, -0.004706339, 0.3809029, 0.0050055766, 0.031870767, 0.33610654, -0.12724583, -0.04171727, -0.013568254, 0.0037515787, -0.19498995, 0.74427253, -0.05576628, -0.16074221, -0.03956785, -0.025987666, -0.0059632044, 0.005357876, -0.557434, 0.011362934, -0.35459512, -0.016014375, 0.0023963146, 0.22550063, -0.022920035, -0.022426978, -0.06698941, 0.26560354, 0.13112612, -0.06245949, -0.07048788, -0.69109035, -0.020619808, 0.19279552, 0.0022072238, -0.11517321, -0.5820717, 0.008066152, -0.030727513, 0.01298966, 0.5114105, -0.004878769, -0.5641226, -0.19373994, 0.009713755, 0.10359632, -0.07811082, 0.37858316, 0.030258322, -0.104491435, -0.06705393, 0.29870808, 0.0043084086, 0.047623023, 0.50484496, 0.010964116, 0.03115889, -0.0030090758, 0.0032674542, -0.05023917, -0.16653912, -0.29633397, -0.13927886, 0.13962843, 0.28534892, 0.1475727, -0.003481451, -0.012273419, 0.0038654672, -0.0020976618, -0.02263423, 0.0340098, 0.030894248, 0.16672406, 0.054254048, 0.0058085346, 0.034765966, -0.22399436, 0.20568076, 0.02491953, 0.010707667, -0.0053215604, 0.003738355, 0.7984618, 0.29844865, -0.016619606, 0.014612377, -0.26470867, 0.044518214, -0.5536394, -0.023932517, -0.13872862, -0.4889168, 0.025151093, -0.13572428, 0.09084897, 0.025711557, 0.22887896, 0.025106758, -0.0048226877, -0.042234074, 0.14793043, 0.01204355, 0.0201063, -0.31164384, -0.04457374, 7.69137e-05, 0.25180608, 0.0057523623, -0.0023708225, -0.054151714, -0.009665297, 0.0032831577, -0.011459838, -0.14057457, 0.5406143, 0.13480759, 0.029533684, -0.5157254, -0.0073622875, -0.0018674001, 0.35881227, 0.00074658374, 0.034346703, 0.0039650286, 0.007824086, -0.0052489135, -0.1327045, 0.11871498, -0.32818964, -0.17795658, 0.018480102, 0.066600464, 0.05399079, 0.025920594, -0.12489951, 0.009324593, -0.24598673, 0.011895611, 0.49984872, 0.45313865, 0.21974427, 0.0073837494, 0.71420956, -0.29662582, 0.11417262, 0.11597747, -0.05847439, 0.0046433965, -0.030252893, 0.39507145, 0.16781892, -0.052917544, 0.14191061, 0.007827678, 0.043921337, 0.41315475, -0.031664114, 0.2063965, 0.36770862, 0.18612128, 0.049086686, -0.014211699, 0.23856524, -0.062911995, 0.07990039, 0.3160083, 0.0027074602, -0.052559957, -0.04133832, 0.039277818, -0.016279913, 0.009504281, -0.26986668, -0.092719994, -0.0066107004, -0.058933556, -0.22955047, 0.015785467, -0.0034385656, -0.058389507, 0.36406395, 0.011754165, 0.0007508948, 0.14715698, -0.0047389106, -0.10772186, 0.48122638, -0.50003797, 0.039883975, 0.040245544, -0.008201613, -0.11876084, -0.094326705, 0.019314727, 0.11743698, 0.055281576, -0.14209792, -0.0088955, 0.19518155, -0.0049089286, -0.009277865, -0.0017095547, 0.0019721275, 0.0036890495, 0.20048536, -0.3123818, 0.12226962, 0.00049022253, 0.005992226, -0.01296895, 0.17501293, -0.20416549, 0.13678063, 0.08984378, -0.017468676, 0.009223277, 0.0038359314, 0.42672884, -0.02427387, 0.28809586, -0.010145653, 0.00810341, -0.019102396, -0.007738983, -0.01861348, -0.013952548, 0.012198555, 0.009919769, 0.0702953, 0.1690124, 0.48484343, 0.0026803394, 0.07663496, -0.09962233, -0.07726489, -0.10285043, 0.6158044, 0.24283786, -0.7198555, 0.055612024, 0.14719257, 0.009784168, 0.27137065, -0.0066465386, -0.108483285, -0.10878506, -0.114884414, -0.009012112, 0.15919493, 0.026023254, 0.028070936, -0.04888193, 0.051014654, 0.009314627, -0.005864752, 0.07872341, 0.4863025, -0.55411094, -0.32011777, -0.0044389484, 0.10934671, -0.007520085, -0.09772961, 0.11793971, 0.003586566, 0.07495326, 0.060197633, -0.039464507, -0.0063077393, -0.13227937, 0.13887736, 0.07305077, 0.075360045, -0.010813998, -0.026361758, -0.25351745, 0.0015367299, 0.0063063884, -0.0021764443, -0.005637834, 0.29723078, -0.015745133, 0.025058841, 0.31161195, -0.16026054, 0.14224699, 0.31186813, -0.041396018, 0.16924731, -0.69750535, 0.1682871, -0.02426544, 0.08505575, -0.010307453, -0.010298773, 0.053170975, -0.025992107, -0.11975657, 0.061127327, -0.4140866, 0.0071343174, 0.1004018, -0.59524715, -0.1282179, 0.07591289, 0.1094197, 0.2193463, -0.009202201, -0.015412953, -0.07809434, 0.30127987, 0.17142698, 0.12736411, -0.31881604, -0.015232988, -0.14152022, 0.0029870104, -0.07762156, -0.1403841, -0.0017728959, 0.2597684, 0.18030119, -0.0039994526, -0.06989585, -0.0015324369, -0.16991892, -0.017355906, 0.3014812, 0.005777109, -0.2860536, 0.00821344, 0.010157724, -0.055163, 0.004538115, 0.008544521, 0.089673586, 0.2658879, -0.25958404, 0.21300921, -0.25372213, 0.5600162, -0.44154775, 0.020375203, 0.11449329, 0.63828, 0.016430708, -0.003735749, -0.010482568, 0.019832026, 0.053139903, 0.009490998, -0.06783705, -0.066137135, -0.024097368, -0.32195294, 0.02310503, 0.026384497, -0.12572661, -0.018648995, -0.020624055, -0.020448659, 0.08935462, 0.061170083, -0.02029167, -0.017511092, 0.029039541, -0.046654064, -0.096174896, 0.056727543, 0.004731243, 0.29329464, -0.021855019, 0.0072785947, 0.4980433, 0.5225762, -0.2587297, -0.073822685, -0.018980961, -0.012269835, -0.0027374164, -0.0060428577, -0.03746571, -0.0096000945, -0.046698257, -0.14067191, 0.28730416, 0.034851566, 0.28998202, 0.0013160513, -0.027792789, -0.034062926, 0.050567213, -0.09956787, -0.38364106, -0.04682306, -0.10479659, -0.003600065, 0.44229132, 0.25296694, -0.008902421, 0.0052923462, 0.14645383, 0.0066162413, 0.093740895, -0.08675441, -0.073703535, 0.023930166, 0.09567527, -0.12718278, 0.085757, -0.5008232, 0.006012237, -0.14567973, -0.0223745, 0.23243897, -0.018371364, -0.017810771, -0.024544144, 0.0507938, 0.062401887, -0.0015076984, -0.00412545, 0.005218553, -0.05961062, -0.0037110571, 0.56213325, 0.15247473, -0.19843157, 0.009976248, -0.03287191, 0.030293133, -0.0011676755, 0.14971647, 0.16376261, 0.1161979, 0.042323858, -0.025887225, -0.36447865, -0.07083332, 0.022605225, 0.17479846, 0.16665101, 0.13789079, 0.11738028, -0.11059589, -0.31838515, -0.102978684, -0.035165388, 0.007083122, -0.014301196, -0.00943476, -0.0032407858, -0.049812216, -0.03989119, 0.025303362, -0.4384114, 0.14150642, 0.00025092557, -0.44740593, -0.12852462, -0.0038612587, 0.0049089133, -0.023281138, -0.14787596, -0.158315, 0.012673953, -0.021996342, 0.005944279, -0.3530593, 0.06322461, -0.0065261265, 0.13311146, 0.035940774, -0.044266887, 0.19411322, 0.008873204, -0.010462623, -0.26419228, 0.43604293, -0.011510233, 0.08158263, 0.05468489, -0.0097318785, 0.29113367, -0.0072170617, 0.019537315, -0.08313783, 0.00082395936, 0.025178775, 0.0046475576, 0.023766875, 0.1119912, -0.4584157, 0.0032235687, 0.20191298, -0.3279619, 0.010535579, 0.3052471, -0.014072016, -0.009966071, -0.011782174, 0.10515058, -0.032013, 0.15192558, 0.03439688, -0.10953522, -0.047253795, -0.020763116, 0.013296359, 0.016206054, -0.019008808, -0.011566888, -0.015511283, 0.27802977, -0.007505621, 0.022723103, -0.29444817, -0.24080105, 0.2513235, -0.008840282, 0.016385177, -0.004969761, -0.2214049, 0.00705315, 0.00088266464, -0.047703933, -0.1803046, 0.067851916, 0.0005519682, -0.36197314, -0.0032009997, -0.26394925, -0.0054469598, 0.0049311304, 0.041361067, -0.28571013, -0.0018111729, 0.15044312, -0.19331278, -0.026667304, 0.026379699, 0.01379319, -0.4995269, -0.0035804817, 0.109964274, 0.013681723, 0.17256963, -0.60461223, 0.0020740554, -0.18001166, -0.062236942, -0.03528441, 0.013442416, -0.6881933, -0.13316342, 0.3254619, 0.07111464, -0.17706002, 0.7289847, 0.026877185, 0.024185197, 0.07308143, -0.4583507, 0.07399004, -0.04882222, -0.032656144, 0.052894276, 0.0059299655, -0.05287501, 0.0045928336, -0.012486636, -0.15974009, -0.0091137905, 0.16009293, -0.13207649, -0.42592394, -0.19506207, -0.0104109915, 0.0039020244, -0.009158054, 0.007805044, -0.007910039, 0.114541374, 0.022928625, -0.12928897, -0.014119127, -0.015296133, -0.1587049, 0.3317136, 0.048354838, -0.01933772, 0.0042284206, -0.034695692, -0.0002954223, 0.00051743817, 0.50161445, -0.01012783, -0.28975317, 0.0073295264, 0.04019075, 0.6020467, -0.005497738, 0.00014282425, 0.21414895, 0.06718237, -0.2378438, -0.13256943, 0.14977023, 0.3299922, 0.022653937, 0.0048128827, -0.05594468, 0.07543067, -0.0057406924, 0.0271978, -0.12926088, 0.05326912, -0.044769872, -0.610961, -0.021873597, 0.011207056, -0.14117129, -0.09307122, -0.005726524, 0.00033926955, -0.05894914, 0.2697718, 0.08791105, -0.029814376, 0.058781676, -0.0034758176, -0.0035214827, -0.29398426, 0.20532264, 0.016423399, -0.0072792703, 0.005256676, 0.0026150334, 0.457846, 0.04161047, 0.046903074, 0.08286151, 0.004563102, 0.051103383, 0.06959392, -0.1886527, 0.0035537872, -0.0046342933, 0.3001183, 0.005539227, -0.20843898, 0.11367285, -0.09333081, -0.038536, 0.30399877, -0.14433166, -0.37841648, 0.1745182, 0.014601112, -0.014113202, -0.019014105, -0.3896593, 0.03269116, -0.07560875, -0.43124917, -0.012857518, -0.07287595, -0.18279532, 0.10188303, -0.15133329, 0.5340518, 0.142815, 0.040918447, -0.0014831527, 0.3997632, -0.029377615, -0.044877365, 0.1834742, -0.0005792841, -0.19422159, 0.67384726, 0.14692003, 0.042643614, 0.029600158, 0.14453499, -0.016296858, 0.019622575, -0.040877845, -0.060130805, 0.01001112, -0.0018402264, -0.10635166, 0.04480405, 0.00065257633, -0.037428446, -0.30798754, -0.0003253132, 0.61249155, -0.26622343, -0.093093485, 0.13545081, 0.024104372, -0.0074815373, -0.076661915, 0.40180135, -0.007900012, 0.081516765, -0.34148535, 0.13987361, 0.12700538, -0.09296848, -0.084538914, 0.022728538, 0.024800383, -0.014543124, 0.0041785026, -0.11635795, 0.5580319, -0.14474678, -0.015280157, 0.010263619, -0.02202101, 0.0662967, -0.10481809, -0.083448246, 0.15639614, -0.021231849, 0.012292118, 0.012893803, 0.22380689, -0.011636194, -0.34758204, -0.0008986212, -0.019617926, 0.005482117, -0.027418407, -0.010215943, -0.009163935, 0.033010516, -0.0023655195, 0.04396935, 0.00672269, 0.24761157, 0.010804489, -0.022601105, 0.093185745, 0.092620894, 0.11591443, -0.2977449, -0.03785412, 0.1060248, 0.15383902, -0.098636605, -0.03104713, 0.70405936, -0.0012496619, 0.123595275, 0.18827027, 0.2319778, -0.02419967, -0.059130214, -0.092385955, 0.007137845, -0.047825266, 0.14411502, 0.0155328065, -0.0019134162, 0.014128429, 0.50803626, 0.02885402, 0.15949622, -0.014554293, 0.04443461, 0.0019407896, -0.033259634, -0.5190056, -0.018229313, 0.082413614, -0.13113499, 0.04225525, -0.005278267, 0.19074559, 0.3138257, -0.09047774, 0.023131462, -0.0080121355, -0.021244084, 0.6061467, -0.00046540552, 0.00093889725, -0.021904886, -0.030601732, 0.18335298, 0.009283186, 0.024133347, -0.40493703, 0.6155284, -0.07251847, -0.12530173, 0.19755802, -0.06707525, 0.76871353, -0.27172583, -0.00029752587, -0.02976728, 0.028754469, -0.020349037, 0.0033743435, -0.0673429, 0.090065144, -0.04149898, -0.049415905, -0.081771925, -0.024513662, -0.036792915, 0.06372223, -0.16779433, 0.041976377, -0.20271155, -0.018737378, -0.023251958, 0.53604853, 0.18933333, 0.08919316, -0.05980152, 0.26127964, -0.004239447, 0.5082672, 0.0014611501, -0.07144079, 0.13480324, -0.005928937, -0.29558632, 0.031418733, 0.02472929, 0.007995348, -0.0074141733, -0.13723256, 0.046132334, -0.38173768, 0.062891886, -0.09329316, 0.013254219, -0.0017971674, 0.043984685, -0.014957708, 0.018941334, -0.024641836, -0.13446529, 0.21594149, -0.24673823, 0.11757729, -0.5725165, 0.60171366, 0.045059342, 0.21242039, -0.51510215, -0.00010374818, 0.0010653916, 0.004329928, -0.023561213, 0.06784624, 0.034273136, 0.12802535, 0.04383689, 0.09072527, 0.36387104, 0.02010339, 0.036823638, -0.08979822, -0.0044662, -0.006078581, -0.03366147, 0.09134779, 0.35284597, -0.015614785, -0.009640158, 0.0245472, 0.055280242, 0.13829169, 0.1254802, 0.023302006, -0.4422367, -0.008664334, 0.005368828, -0.48624492, 0.302495, -0.015781702, 0.050134048, 0.11598646, -0.011548118, 0.00041741945, -0.0022740422, -0.11785952, 0.014514449, -0.016805137, 0.06266676, -0.4066431, 0.033465873, 0.28125578, -0.014826746, 0.010749098, 0.001044355, 0.08107163, -0.1625398, -0.4988079, 0.056483235, 0.03512375, -0.002521224, 0.49228662, -0.20512718, -0.0024491719, 0.016063575, -0.1309032, 0.14177875, 0.11880038, 0.26736635, 0.18083762, -0.021487884, -0.12893084, 0.17034158, 0.0058712973, 0.42370445, -0.0048468383, -0.023679867, 0.06682054, 0.021481695, -0.009666911, 0.07651633, -0.01766849, -0.20648034, 0.022870189, 0.08619069, -0.28908274, -0.0013851353, 0.026872898, -0.0052623525, 0.36058414, -0.068196945, -0.3489103, -0.017453536, 0.40388203, -0.14909609, 0.010102269, -0.002043844, 0.12402303, -0.15876134, -0.028531443, -0.01583489, 0.3205076, 0.17674755, -0.0059261564, 0.5412698, -0.62178785, -0.14642553, 0.15644874, -0.53627497, 0.48409072, 0.1168789, -0.0018717274, -0.006489982, -0.17603716, -0.00075427874, 0.003315227, 0.19973, 0.35638693, 0.2435034, 0.48885083, 0.103921525, 0.0007410136, 0.34555578, 0.094498806, -0.014260543, 0.023034971, -0.005603933, -0.10500479, 0.026367916, -0.009197431, 0.234288, 0.003951791, 0.7512233, 0.32089406, 0.008166814, 0.03654111, 0.032654107, -0.089764014, -0.12040196, 0.014388456, 0.12094012, 0.25539362, -0.26427963, -0.0445282, -0.054264553, 0.09882273, -0.0006218221, 0.018840164, 0.009415653, -0.040216133, -0.050143976, 0.015479613, -0.07190875, -0.0057401555, 0.013605818, -0.032481752, 0.020993602, 0.009805777, -0.09690213, -0.38498247, -0.23222175, 0.1568439, -0.017843714, -0.018440682, -0.009818198, 0.3812989, 0.08539973, 0.22565423, 0.09823707, 0.07552228, -0.14403892, -0.0010427376, 0.003923599, 0.0172255, -0.012403902, -0.010041, -0.018540947, 0.31322494, 0.0024540029, 0.013658552, 0.06371161, -0.031084107, 0.3237742, 0.0022288659, 0.0046134363, 0.0547316, 0.14807306, 0.0108459825, -0.00044761365, 0.0019155705, 0.13743019, -0.075568154, 0.0037195806, 0.19851613, -0.013745922, 0.43243, -0.03541924, 0.007608464, -0.07768449, 0.18624023, -0.029124888, 0.08621648, 0.17658594, 0.14994217, 0.066502266, 0.070738554, 0.41047707, -0.03453646, 0.3476859, 0.06220795, -0.027297238, -0.48808593, -0.0097722, 0.122100204, -0.098259695, 0.578766, 0.0018399674, -0.23109373, -0.088794634, -0.08835015, 0.05717962, 0.021067701, -0.14334717, 4.236045e-05, 0.10382389, -0.0105749, -0.3387828, 0.00029063222, -0.12179704, 0.6412279, -0.1343964, 0.0423361, 0.054758664, -0.0019218231, 0.05504446, 0.015125758, -0.3579744, 0.16270998, -0.0060641076, -0.0065621035, -0.16829167, -0.009432203, 0.0056437543, -0.004465886, -0.010313861, -0.0017554555, -0.16264224, 0.03385809, -0.044240408, 0.015516362, 0.009574247, -0.1261875, 0.08569454, -0.117250584, 0.15108716, 0.04230963, 0.109919704, -0.004258667, -0.41256565, 0.22924808, 0.007878947, -0.14835781, 0.10456919, -0.28760418, -0.32931367, -0.07906435, 0.056755126, -0.0034410825, -0.06331948, -0.81841075, 0.22921078, 0.027472775, 0.44040143, 0.051770903, -0.012942519, 0.038194414, -0.13746046, 0.00517776, 0.023378495, -0.509893, -0.14642528, 0.0047537945, 0.7138375, -0.0074579082, 0.05144272, -0.08299632, -0.0037315532, 0.027872127, 0.0045358744, 0.07176633, 0.4910164, -0.06703109, 0.22841272, 0.6806002, 0.0064314655, 0.026227323, 0.19613439, -0.097119585, 0.0026013327, 0.010749152, -0.003759089, -0.0258414, -0.32499847, -0.10037308, -0.19539495, 0.089080304, -0.005288281, -0.09846236, -0.07789756, -0.13749923, -0.253681, -0.008713812, 0.5747582, 0.0025072815, -0.43838385, -0.3006472, 0.5221457, 0.0046981564, -0.24661535, -0.25674075, 0.34286407, 0.18138582, -0.012699838, -0.0011114487, -0.024629494, 0.30268502, -0.05382774, 0.09047399, 0.04647952, -0.007820616, -0.22830155, 0.05294101, 0.026875377, 0.094254434, -0.21287288, -0.32083112, -0.10537399, -0.003637482, -0.11981768, 0.02495612, -0.048768178, 0.115831904, 0.011465954, 0.12821889, -0.33172455, -0.14580914, -0.007618708, 0.012932245, 0.077088736, 0.03085333, 0.0036488366, 0.03235596, 0.17123154, 0.028197836, 0.00056385895, 0.19602875, -0.74300253, 0.0023806398, 0.059823837, 0.45468023, 0.006574519, -0.06445205, 0.6384693, 0.08102199, -0.1536665, 0.034823786, -0.009051999, -0.23780455, -0.7141753, 0.015250214, 0.06533167, -0.13748594, 0.008953852, 0.11324566, 0.10444897, 0.0134058045, -0.0075144502, -0.003176216, 0.0013345054, 0.007897668, -0.06652692, -0.15844402, 0.04523562, -0.0017289935, -0.010081674, -0.013358237, -0.13318545, 0.06674461, -0.08616096, 0.13578169, -0.05866045, 0.009934891, 0.0038111557, 0.4525634, -0.013733304, 0.23580338, -0.005533705, 0.0031889896, -0.009486132, -0.01021239, -0.023100149, -0.02283647, 0.030712632, -0.0058937958, 0.008330026, -0.10263874, -0.19017468, -0.01514468, 0.05418563, -0.060180325, 0.13913538, -0.19689205, 0.6863874, 0.36677033, -0.35925573, 0.15073927, 0.11280908, -0.00019156409, 0.3161147, -0.22256503, -0.235974, -0.1642727, 0.07840055, -0.0066415495, -0.041362893, -0.124099754, 0.01804513, 0.11491846, -0.11541517, 0.005957798, 0.006343998, -0.024621649, 0.24731192, 0.11137391, -0.06848514, -0.011191061, 0.007351632, 0.045067653, 0.12142172, -0.28454128, -0.0094292145, 0.076988235, -0.077179305, 0.01838029, -0.006897527, -0.20828268, -0.07659864, 0.08017935, -0.046068583, -0.0035237242, -0.0031282809, 0.13338582, 0.004530236, 0.0003322622, -0.0015778538, -0.00692789, -0.07067073, -0.01212272, 0.01756044, 0.28047854, -0.18759276, 0.080968104, 0.17853425, 0.114436574, 0.008164024, -0.61095935, 0.615769, -0.014686712, -0.065327875, -0.006206241, -0.02523336, -0.089356475, 0.035387095, -0.4102306, 0.104432106, -0.115176894, -0.080021106, 0.014481078, 0.13325493, -0.124593034, 0.12229469, -0.090770796, 0.019166186, -0.0017313677, -0.01697587, -0.25919402, 0.31865212, 0.05819748, 0.23791546, -0.33031675, 0.004704008, 0.08381633, -0.0001753638, 0.003597748, -0.0011606263, 0.001677404, 0.12314942, -0.11687971, 0.014540334, -0.027215097, 0.020604858, 0.103751436, 0.012118071, 0.17860594, 0.0041239113, -0.13462076, -0.005394867, 0.005329111, 0.0012781246, -0.025028463, 0.015923295, 0.07592898, 0.0038469667, -0.018235207, 0.49614266, 0.03762133, 0.6688969, 0.033754665, -0.06296282, -0.035178088, 0.011318025, 0.014552888, -0.016254993, 0.01782581, -0.029282698, -0.03849156, 0.013177713, -0.05331708, -0.028161835, 0.026003053, -0.12892738, 0.017436486, 0.01824453, 0.1978843, -0.008323471, 0.010037631, -0.026403118, 0.37363207, -0.476954, -0.02069801, -0.0008481226, 0.0007023483, 0.1383325, 0.025615547, -0.0018888804, -0.005362846, 0.14476123, -0.010289189, -0.017350093, 0.53434795, -0.31996423, -0.1483784, -0.16691011, -0.043756094, -0.028164597, -0.0022626414, -0.01030241, 0.056126695, -0.014337729, -0.02920434, 0.038931686, 0.11769901, -0.022085832, 0.34819824, -0.0015426968, 0.024724612, -0.021759579, -0.0094941845, -0.09512877, -0.138065, -0.04694181, 0.1237089, 0.009467432, 0.19511464, 0.17663795, 0.004284379, -0.0005089649, 0.14630477, 0.0008889547, 0.009201037, 0.09371063, -0.07481686, 0.035092175, 0.19084588, 0.13075876, -0.0271422, 0.18328899, -0.0200967, 0.19348446, -0.0783984, -0.15245321, -0.00024152425, -0.12520365, -0.0040224805, -0.029960213, -0.29083842, 0.24142523, -0.03216136, 0.023433661, -0.061771054, -0.015255267, 0.4820405, -0.07865831, -0.50578445, 0.0024870436, -0.22693971, 0.17126827, 0.00034547356, 0.078515336, -0.013439181, 0.2117666, 0.00442415, -0.0015263949, -0.47478965, -0.0342816, 0.005632311, -0.7541973, -0.025440892, -0.07987938, 0.391773, -0.29974252, 0.072620414, 0.10248695, 0.0061140517, 0.014131455, 0.056099728, 0.0035085697, 0.02172963, -0.0945679, 0.464014, 0.025181275, -0.45947832, -0.032095067, -0.0011335628, -0.3357392, 0.1027722, -0.0074236966, -0.0045322827, -0.099036045, 0.14535275, -0.07135703, 0.0038300967, -0.1543097, 0.0028444258, 0.04325929, -0.38802662, 0.003486221, 0.002104207, -0.11391414, 0.05425819, 0.1433315, -0.004336255, -0.080794975, 0.34350258, 0.0695621, -0.08727499, -0.048032448, -0.06755977, -0.013108518, 0.56762576, -0.00027792048, -0.0055745323, -0.01528628, -0.006903497, 0.46550423, 0.0019369498, 0.019804375, -0.02096522, 0.29659405, -0.0023556212, -0.016093327, -0.15102161, 0.10101613, -0.21644464, 0.001078692, -0.015329414, 0.004786072, -0.20985447, -0.0071058488, -0.26414832, -0.21090889, 0.0012348645, -0.01693706, -0.069722004, -0.0007100305, 0.006092711, 0.0114069125, -0.021695988, 0.0005968005, 0.32759446, 0.012524287, 0.022762181, -0.2745036, -0.040616162, 0.38949424, -0.015175193, -0.008619167, -0.1426306, -0.32292628, -0.19254039, 0.04839653, -0.09509193, 0.13976139, -0.050415028, -0.0055104652, 0.086180575, 0.006923054, -0.1274217, -0.01176195, -0.002582471, -0.13344634, -0.052907683, -0.0019831292, -0.021127393, 0.062713124, 0.0634663, -0.007414942, -0.015971016, 0.70074654, 0.0020923517, 0.024971904, 0.040563136, -0.025552379, 0.6536376, 0.014567358, -0.19261923, 0.042469382, -0.47979724, 0.017879438, 0.40226617, 0.19633108, -0.18497552, -0.31567776, 0.04383038, 0.029000353, 0.024301568, 0.09827974, 0.016494626, -0.14198527, -0.0074782497, 0.03522441, -0.24585691, 0.026941352, 0.018091748, 0.036227725, 0.00825902, 0.050449405, 0.067987084, -0.16002849, -0.05544309, 0.10034193, -0.3569357, -0.17585078, -0.018746357, -0.0047733206, -0.008835074, -0.0050478745, -0.021763453, 0.07983085, 0.026931899, 0.07149379, -0.04157454, -0.0064414614, 0.045560453, 0.06870351, -0.05623407, 0.048588425, 0.02448849, -0.11604324, -0.002772004, -0.1492524, 0.6430781, -0.01632654, -0.21853243, 0.040513434, 0.16415593, 0.39342478, 0.029135723, -0.13094023, 0.42471853, -0.055958807, -0.10742023, -0.09155055, 0.06548415, -0.0068825814, 0.02616872, -0.011485114, 0.015047311, 0.13769305, 0.00975584, 0.0040643746, 0.14363846, 0.0876979, 0.03133351, -0.7911516, 0.00991831, -0.07548268, -0.002333862, 0.17594281, 0.0073406706, 0.0110634575, -0.074479304, -0.18995999, -0.13054352, -0.025647294, 0.28000712, -0.011731432, 0.04146922, -0.6337873, 0.05342272, 0.023521367, -0.010542992, 0.0040083537, -0.004563839, 0.58602273, 0.02720073, 0.16631466, 0.02662796, 0.013629994, 0.008934612, 0.0484972, 0.07523791, 0.09018499, 0.00897885, -0.037688226, 0.014084951, -0.22484879, -0.18565431, 0.24229635, -0.0019298231, 0.26061627, -0.52284485, -0.32092255, 0.3368235, 0.12928042, -0.0048004203, -0.024214787, -0.5408777, 0.03844527, 0.08157786, 0.3390534, -0.006912482, -0.12971623, -0.31939372, -0.056996103, -0.24403004, 0.25899762, -0.030165307, -0.07459474, -0.0070251417, 0.41797444, -0.039028276, -0.055585474, -0.0062993676, -0.008634699, 0.0406463, 0.23063597, 0.23779427, 0.0018782511, 0.0052467715, 0.049349952, -0.16153692, 0.012774876, 0.20202303, 0.38942185, 0.022486076, 0.0022136604, 0.65534216, -0.4479755, 0.010160285, 0.051773574, 0.14331892, 0.01670901, -0.30181676, -0.24411447, 0.38763255, -0.15557055, 0.02340697, -0.014938193, 0.18381679, -0.007855244, -0.005816316, -0.00971657, 0.24044132, 0.010454383, 0.093801856, -0.13032839, 0.10949447, -0.012334473, -0.00561466, 0.011116009, 0.010438076, -0.015522974, -0.451855, 0.11086028, -0.0072168806, 0.0039425786, -0.0060894345, -0.03725947, 0.18206595, -0.0049440432, -0.070673116, -0.052026168, -0.0073354584, 0.0017054538, -0.36732772, -0.0076477756, 0.07410096, 0.0008300995, 0.015695652, 0.0047003, -0.013573392, -0.019238867, -0.031485885, 0.007837922, -0.00010937447, -0.102222, 0.0954128, -0.58843905, -0.008071354, 0.10256426, 0.44183666, -0.040854756, 0.12496343, -0.2175374, 0.33957833, 0.35851732, -0.17512585, -0.11947586, 0.019986592, -0.056847032, 0.07447457, 0.077493735, 0.12850195, 0.00502533, -0.0051409877, -0.18992506, -0.11633843, 0.043038063, 0.012779196, -0.16586578, 0.0040728725, 0.002638844, -0.020896079, 0.29371253, 0.53667504, 0.43481326, 0.017152641, -0.014042304, 0.02142188, -0.16559754, -0.624718, 0.0010790913, -0.074203834, -0.050010685, -0.06546746, 0.0070409905, 0.044519935, 0.13581468, -0.14516236, 0.079213664, -0.011181123, -0.008766936, 0.34432733, -0.010985117, 0.005865018, -0.0043950058, -0.04204595, -0.005244103, -0.010553948, 0.016532002, 0.573883, -0.5411007, -0.07939364, 0.35458517, -0.06363103, -0.015686523, -0.79481035, -0.75796646, 0.002276347, 0.1071594, 0.011045908, -0.0035564983, 0.10636456, 0.073577546, -0.20802641, 0.09482321, -0.56309897, -0.8016276, 0.06109486, 0.23532234, 0.14494231, -0.01963791, 0.009360005, -0.10598185, -0.015060297, 0.0036791805, 0.5466501, -0.18942428, 0.0745198, 0.5375108, -0.14950769, -0.014456925, -0.31906664, 0.016661238, 0.08648191, 0.041663803, -0.0010104583, 0.12574579, -0.102465324, 0.001396691, -0.0013381068, 0.052175365, 0.11822532, 0.09375909, -0.57309526, 1.3154164e-05, 0.5524087, -0.0054866136, 0.0073868567, 0.05917578, -0.021019781, -0.002325155, 0.10978879, -0.07628456, -0.02278239, 0.48782632, 0.09699455, -0.3694837, -0.3383023, 0.16470103, -0.000791968, -0.55775595, 0.021044927, 0.007246236, 0.008881138, 0.12064725, -0.20409773, 0.007906828, 0.1517935, 0.06347672, 0.0134089915, -0.49584565, 0.009230449, 0.010169076, 0.18472753, -0.0010490975, 0.010822912, 0.12200929, -0.43952543, -0.5678155, -0.018451896, -0.0059857387, 0.033304423, -0.22065854, 0.07351663, -0.01340292, 0.0057787662, 0.040137213, -0.015212417, -0.008336866, 0.2407245, 0.5142033, -0.040071663, -0.0043806285, 0.035569467, -0.014675301, -0.01564967, -0.0033447046, -0.019972704, -0.00034970482, -0.031541977, 0.09486376, -0.24685568, -0.06815783, -0.53634816, 0.0072392356, 0.032454662, 0.14614418, -0.24318707, -0.5408199, 0.7612435, -0.20082505, 0.064074345, 0.008177334, -0.24265085, 0.26529342, 0.008420357, 0.0146836275, 0.014337083, 0.030178513, -0.0131918825, 0.4794427, -0.15092637, 0.095701985, 0.23124763, -0.17268834, -0.056533705, 0.13847032, -0.009145368, 0.13166894, -0.059068576, -0.36191583, 0.0014800141, 0.05765232, -0.012322515, 0.1469093, -0.1564686, -0.19508508, 0.25131503, 0.0029882698, -0.11620079, -0.017443534, -0.106555894, -0.06641554, -0.46678358, 0.01363787, -0.5319203, -0.21493734, -0.0033479158, -0.13364089, -0.048477132, -0.1053527, -0.021488387, -0.013393465, 0.25079903, -0.06846341, 0.0071834372, -0.46551892, 0.6499166, -0.004627588, 0.2936068, -0.29685512, -0.17599401, 0.061017174, 0.010113696, 0.019140705, 0.11553985, 0.0056605428, 0.02660363, 0.0130903525, 0.038510412, -0.21074383, -0.1952036, -0.2838296, -0.009556521, 0.18957417, 0.08538306, 0.003341689, -0.00017167357, 0.00064834434, -0.035875443, 0.06046306, -0.014163932, -0.65286356, 0.0058806445, -0.5127292, -0.8639626, -0.051381815, -0.2533002, 0.21902038, -0.017309843, -0.05447988, 0.009415493, -0.021108976, 0.32779014, -0.596581, -0.20333287, -0.10328804, -0.030762238, -0.01815123, 0.07727839, -0.020910896, -0.02958246, -0.21954465, 0.0072227553, 0.095449656, -0.003927789, 0.02116806, 0.11878826, 0.22166218, 0.006603684, -0.10000653, -0.079801254, 0.008601993, 0.07378047, 0.00052632735, -0.0055330005, -0.009513061, -0.34126732, -0.01480282, -0.49222216, 0.010204631, 0.14397381, -0.04509102, -0.13686022, 0.008357983, 0.0164276, 0.006261902, -0.013244872, -0.007716051, 0.16037866, -0.0014254565, 0.027031291, -0.3692928, -0.09815775, 0.12570088, -0.012871464, -0.031190269, -0.13537848, -0.21360654, 0.097969584, -0.0047145295, -0.08338497, 0.030800626, -0.029936066, -0.018681947, 0.011162903, 0.006562689, -0.35686973, -0.02154497, -0.0020929994, -0.06745852, 0.043524504, 0.01922559, 0.61787426, 0.16011426, -0.05298946, -0.040952574, 0.025945172, -0.11193368, -0.008252635, 0.6222685, 0.09690786, 0.1577964, -0.17529784, -0.016605103, 0.3196986, 0.0835255, -0.024336867, 0.012535581, 0.5485913, 0.025667144, -0.6238344, -0.85676736, 0.024479587, -0.21691158, 0.021985142, -0.10017136, 0.12195463, 0.24099422, 0.18164359, 0.18445206, -0.19195402, -0.11348932, 0.023721049, -0.030945756, 0.012756089, 0.047816865, -0.024960231, 0.6279607, -0.07527644, 0.1845905, -0.43154034, -0.5477508, -0.018524794, -0.0080529535, 0.0027684015, 0.012040399, 0.006969414, 0.045945514, 0.013468068, 0.02860625, 0.25181085, -0.01066741, 0.08603444, -0.4062487, -0.014363986, -0.12138354, 0.0064700157, -0.2712194, 0.0032095136, -0.24745256, -0.42189857, -0.012833896, -0.025110282, -0.27432162, -0.0029258556, -0.59643686, -0.07831632, 0.027862819, -0.19070789, -0.054560702, 0.78347194, 0.12734996, -0.14274827, -0.59985054, 0.024710966, 0.00057139806, 0.15625006, 0.07986217, -0.0015972134, 0.007748943, 0.33522215, 0.0872662, -0.09470223, -0.392219, -0.006871814, -0.13924836, -0.15404333, 0.039550424, -0.004893151, 0.0045879963, -0.059209846, -0.1780369, -0.0038117678, -0.03158966, -0.4501938, -0.009714056, 0.14932047, -0.02380493, 0.084353276, 0.018601503, -0.013729188, 0.00019750053, -0.0006157447, 0.3976361, 0.04525127, 0.38089907, -0.15854299, -4.948422e-05, -0.16796364, -0.05214011, 0.18943934, -0.057829574, -0.021155473, -0.4641244, 0.025950566, -0.800051, -0.10097176, 0.6119237, 0.025993427, 0.36838457, 0.43081668, -0.0863879, 0.42439035, -0.03872239, -0.019356215, -0.030746417, -0.54370856, -0.18495396, -0.12418112, 0.5326722, -0.010863638, 0.44327423, -0.07266577, -0.036957465, 0.869669, 0.7438364, 0.054924082, -0.082147, -0.0074690157, 0.50829, 0.087499544, 0.07463878, -0.00924326, -0.001459941, -0.17203024, -0.77091426, -0.12131552, -0.036014058, 0.02482864, -0.10376197, -0.10274179, 0.002685116, -0.10978863, 0.004271494, 0.0055016605, -0.008843848, 0.017239489, 0.42868456, 0.0048039854, -0.04201259, -0.29238784, 0.015133062, 0.33172292, 0.113149375, -0.30640322, 0.09964643, 0.030289676, -0.0064276587, 0.08418868, 0.41782144, 0.012359538, 0.030983863, 0.24885592, -0.013511015, 0.020754563, 0.10548153, 0.017994044, -0.005649719, -0.0067803594, 0.011246649, 0.013987247, -0.020035373, 0.49451876, -0.08197271, 0.006540492, 0.022842698, -0.013028536, 0.02280631, -0.11256466, -0.102350205, -0.05764457, 0.06893003, 0.0073815905, 0.0037607187, -0.123546116, -0.0065234443, 0.19706614, -0.009626302, 0.0002169017, -0.0055622025, 0.0057990327, -0.028467925, -0.029210644, 0.0031735464, -0.010967999, -0.07157146, 0.0074623325, 0.20767385, 0.0042541004, -0.21215892, -0.14605968, 0.051558312, 0.056075256, -0.117605895, 0.11195224, 0.56983846, 0.014666617, 0.0005965296, 0.00066974055, 0.27155685, -0.041241065, -0.08495751, -0.23921064, 0.005343878, -0.008825329, 0.07159334, -0.09595724, 0.0043448624, -0.042349607, 0.043876793, 0.010868464, -0.0015220165, 0.1297068, 0.20981833, 0.18142207, 0.48017657, -0.009727129, -0.08277303, -0.07310744, -0.018063666, 0.47912425, -0.018848207, 0.037406687, -0.045392547, -0.0032105925, -0.01062163, 0.10995043, 0.44824797, 0.16372164, 0.05025877, -0.022820042, -0.012136089, -0.6715521, -0.010569976, 0.0069313366, -0.0030865162, -0.013162162, -0.47779733, -0.009723089, 0.031914506, 0.14738303, -0.10804398, -0.12412898, -0.15557376, -0.101418644, 0.049106836, -0.20445402, 0.12835968, 0.00071126525, -0.1256179, 0.009867341, -0.0044572656, 0.1998808, -0.0011830791, 0.03814792, -0.08807593, 0.65831375, 0.48243305, -0.0120874215, -0.076695785, 0.06634748, -0.13410778, -0.14348821, -0.11839011, -0.020541335, -0.01842541, -0.026369201, 0.3059871, 0.0039232606, -0.04396227, 0.11129966, -0.0033258814, -0.17947279, 0.013031941, 0.103431106, 0.079230085, -0.0008152677, -0.13090266, 0.018601725, 0.006581142, -0.053865295, -0.17213552, -0.030109897, 0.08278014, -0.31707072, 0.10376961, -0.014881537, 0.007958516, 0.011891855, -0.022526424, -2.6379963e-05, 0.0074138762, -0.12678795, 0.14777112, 0.028005471, 0.19178732, 0.027822481, 0.25046995, 0.7823623, 0.03206562, 0.01602652, -0.26792803, 0.021469263, 0.0060425447, -0.008242065, 0.17575815, 0.13637501, -0.003020764, -0.092529826, 0.015570092, -0.04274057, 0.8595461, 0.014022721, 0.014118264, -0.12158462, -0.0074219345, -0.0062174443, 0.089718446, 0.8716042, 0.5639156, -0.031308293, -0.001532671, 0.13836844, -0.028847104, 0.14458169, -0.092487276, -0.012491029, -0.074960716, -0.0006250381, 0.0051511344, -0.47812715, 0.41930702, 0.21593192, 0.11522167, 0.021024091, -0.013402664, 0.008370542, -0.0012983382, 0.120038666, 0.009108195, -0.029450389, 0.02942397, 0.6584082, -0.03622664, 0.255682, 0.017524201, 0.10035377, 0.022472352, -0.049534112, 0.10434297, -0.23641841, -0.07355311, -0.06411143, -0.0028990074, 0.30425316, 0.16256246, 0.012037759, 0.006132026, -0.024788424, -0.124912865, 0.054424148, -0.16169116, -0.03972832, 0.10237265, -0.17985141, -0.131795, 0.050552562, -0.0055333334, 0.0019403135, -0.07241553, -0.032021683, 0.1325584, 0.01322305, 0.09434854, -0.011582491, -0.18910417, 0.21963595, -0.02322425, -0.084345035, 0.02656834, -0.027007233, -0.014229324, 0.6520819, 0.14659524, 0.53901374, 0.009860929, 0.27152416, 0.037152205, -0.00035440593, 0.03265487, 0.054979295, 0.029100476, -0.15638223, -0.011102297, -0.11720244, -0.003845633, -0.003608096, 0.1683737, -0.452556, 0.08427945, 0.048560932, -0.46347684, 0.23111418, 0.18385603, 0.006413553, -0.006450185, 0.013053081, -0.012613514, -0.003465111, -0.056670055, -0.5265657, -0.32796848, -0.21768609, -0.053131398, -0.0021756778, -0.02371592, -0.0034183918, -0.015818557, -0.0013329813, -0.114946745, -0.07286245, 0.13665058, 0.008563209, 0.80761373, 0.022450734, 0.6760133, 0.62339896, -0.03859631, -0.00503398, -0.09523345, 0.01716854, 0.0029837464, 0.014249864, 0.022947224, 0.3286207, 0.57087845, 0.118943855, 0.111904174, 0.070966855, -0.0005056388, -0.32696098, 0.007957647, -0.13253905, 0.014218132, -0.0024664626, -0.3808402, 0.009541281, 0.022951178, -0.12555681, 0.2341161, -0.0073069427, 0.13688575, -0.43655953, 0.0004546625, 0.2586774, -0.015757363, -0.015101946, 0.005675328, -0.27491903, -0.050045937, 0.7703642, 0.06968928, -0.08708501, -0.24462514, 0.042633347, 0.0083471, 0.03444482, 0.0033272416, 0.0018416183, -0.009963797, 0.49105906, 0.009906365, 0.043076437, -0.19488962, 0.10202871, 0.12996815, -0.031539865, 0.02998028, -0.049340617, -0.21636075, 0.045648016, -0.13465841, -0.03544966, -0.13718826, -0.0661796, -0.00814824, -0.028274108, -0.013345841, -0.5026596, -0.010994429, -0.009445679, -0.09963404, -0.070918165, -0.003052705, -0.5267897, 0.047179278, -0.13213184, -0.0090029845, 0.054887265, -0.47270048, -0.0069482448, 0.16273017, -0.002545945, -0.12906198, 0.14124586, -0.0038074409, -0.04837821, -0.12904084, -0.008480304, -0.0008630197, -0.45282087, 0.056430332, 0.01986753, 0.05982283, 0.12210078, -0.3438782, 0.027962785, -0.03070101, -0.029524574, -0.5168127, -0.17114879, -0.06800376, 0.43031526, -0.09672502, 0.02186593, 0.077740155, 0.010844882, -0.025461923, 0.19877091, -0.3013658, 0.04946045, -0.028730387, 0.014446761, -0.1587535, 0.021802846, 0.020338418, 0.008343116, 0.008556637, -0.0027963712, 0.01030188, 0.019278498, 0.0054734726, -0.0954367, -0.008562237, 0.10509155, 0.2552555, -0.034553036, 0.0032463274, 0.013667981, 0.022425817, 0.019503651, -0.38176072, -0.31821346, -0.024546286, -0.3348361, -0.013423272, 0.10123499, -0.15355828, -0.20873809, 0.014567671, 0.045959175, 0.15180396, -0.2630963, -0.049077917, -0.057874557, 0.3605908, 0.014391543, -0.0047733407, 0.06528622, 0.13613966, 0.002994051, 0.017034579, -0.544247, -0.07170525, -0.039287284, 0.4568282, -0.0084615955, 0.060578845, 0.14524627, -0.0213402, 0.012097816, 0.006965504, -0.0028984384, 0.68164164, -0.004234691, 0.01659651, 0.025039298, 0.002869497, 0.07660955, 0.38489786, 0.14837421, 0.0065201153, -0.0052246447, 0.005531689, 0.0032607666, -0.26976547, 0.1891176, -0.2153386, -0.07109516, -0.013945241, 0.0058304337, -0.055195805, -0.021102779, 0.10255313, -0.0083090495, -0.20398617, 0.00046554467, 0.1097058, -0.4508255, 0.6605529, -0.09370182, 0.05646206, -0.16014895, 0.3952878, -0.161983, -0.023340266, -0.01794475, -0.016242929, -0.37669295, -0.05924941, -0.07818232, 0.10473176, 0.00025029978, -0.24467489, -0.15724984, -0.11335206, -0.3138548, -0.6420343, 0.05939401, 0.041642956, -0.007952606, -0.7518201, 0.053253077, -0.14499168, 0.40969154, -0.018043173, 0.026372978, 0.04671726, 0.16355567, 0.0007258079, 0.006339293, -0.013994579, 0.13413328, 0.0048165866, 0.026633667, -0.6422892, 0.018930338, 0.0075518508, 0.021532312, -0.5294395, -0.0069510727, -0.022420937, 0.034716975, 0.0079837665, -0.20638058, -0.47956342, 0.11359471, 0.038667575, 0.030267708, -0.0005728445, -0.034830526, 0.5528109, -0.0026775782, -0.06679083, 0.21563284, 0.022804642, -0.11632613, -0.09810079, 0.016652705, -0.0049400954, -0.0011976362, 0.008222659, 0.017557792, 0.13058673, -0.18901102, -0.006831284, -0.010340372, -0.008655298, -0.007716505, -0.036065716, 0.082605705, -0.05343793, -0.07523428, -0.036736287, -0.0048339535, 0.010542065, 0.26962578, -0.010159269, 0.011317768, 0.0039721876, -0.004520306, -0.00025712576, -0.00737909, -0.0071429154, -0.021937508, 0.005545045, -0.010472039, 0.0755223, -0.060285226, 0.16622205, 0.0032927354, 0.14593162, 0.18662626, 0.04158013, -0.10188965, 0.006720208, -0.17017409, -0.5894654, -0.14037624, 0.1347438, -0.0025850805, 0.09113439, -0.037863415, 0.035315927, 0.05391608, 0.020684134, -0.025284128, -0.025171913, -0.034062818, 0.028738368, 0.075981945, 0.024111683, 0.003401906, -0.009486987, 0.06377102, 0.5826283, 0.18020628, -0.031097397, -0.008986005, 0.18560442, 0.023947058, -0.046290748, -0.10093394, -0.0028048446, -0.13991235, 0.044498954, 0.037837256, 0.017330885, -0.023603693, -0.44990808, -0.08001771, -0.1964385, -0.0042064935, -0.0045209625, -0.33575082, -0.0007412122, -0.0034883174, -0.0062100533, -0.030757302, 0.14430486, 0.0041778446, 0.015587836, 0.4701713, -0.16177413, -0.026420774, 0.043294836, -0.030642087, -0.023285598, -0.72657627, 0.540854, -0.011551835, 0.09227139, 0.0055742264, -0.010826603, 0.0895571, 0.003513781, -0.16248932, 0.04193121, -0.1321447, -0.043374915, -0.04637214, -0.43900415, 0.043380387, 0.06282944, 0.04154993, 0.12935716, -0.022378216, -0.010668492, 0.07318369, 0.20792802, -0.08160423, -0.05605582, -0.08684366, -0.011897555, -0.14772797, -0.005270621, -0.091867395, -0.028814763, -0.005188938, 0.11963482, -0.018266002, 0.0029468979, 0.07865359, 0.037813306, 0.029414682, -0.054197308, -0.00058500475, -0.002114288, -0.14519891, -0.004812876, -0.0038723731, -0.029624797, -0.028410785, -0.00095082953, -0.022673046, 0.0623289, 0.052474424, 0.03191986, 0.21111529, 0.49981314, -0.7114953, -0.03229782, 0.10377708, 0.2789718, 0.030465864, -0.013951982, 0.013662513, 0.05341579, 0.021837391, 0.015973117, -0.04549159, -0.0035432004, -0.091857605, 0.015811663, 0.028890247, 0.016489683, 0.06613812, -0.017556556, 0.007261292, 0.083055, 0.21097146, -0.1088876, -0.00647057, 0.005168449, -0.19374041, -0.12807913, 0.045818985, -0.100905254, 0.014452984, 0.2985486, -0.0020434924, -0.0062537394, 0.3641706, 0.14613771, 0.10350765, -0.025392115, -0.029012064, -0.00030675714, -0.003021157, -0.019333625, -0.015154781, -0.002621927, -0.028039498, -0.087653324, -0.1697106, 0.08219, 0.15434085, -0.0008759676, -0.017274382, -0.045299597, 0.18370591, 0.13050099, -0.32115024, -0.05171761, 0.114517964, 0.016384402, -0.034552444, 0.33505568, -0.0012701618, 0.006870488, -0.1285958, 0.038534798, -0.022157181, 0.086696886, -0.0057210005, 0.04194492, -0.062084407, 0.0780492, -0.21313173, -0.0015305255, -0.014231447, 0.06652643, 0.055559747, 0.29381904, -0.0021680885, 0.03460875, -0.0105737895, -0.017858902, -0.033533774, -0.13756122, 0.2269707, 0.013621955, 0.122355275, -0.025044812, -0.50473374, 0.16792415, -0.1998588, 0.008415684, 0.2563878, 0.10744713, 0.008821925, 0.07142042, -0.19252567, -0.2129058, -0.07172589, 0.00018974712, 0.04144527, 0.10330704, 0.0014566886, 0.272721, 0.1383927, -0.06376612, -0.12684901, 0.1639458, -0.105481446, -0.0631856, -0.0045109903, 0.016962996, 0.0071200463, 0.0049174633, 0.0015402953, 0.11906833, 0.19156343, -0.32240018, -0.06788101, 0.15933293, 0.0016172468, -0.2663138, -0.032392837, -0.016988201, 0.0114643425, 0.15431947, -0.0059877513, -0.078350075, -0.004622265, -0.19798997, 0.005419345, -0.31505427, 0.24531434, -0.15017898, 0.07654747, 0.019035963, -0.13069144, -0.11894238, 0.018183459, 0.07308677, 0.19010186, -0.012823123, 0.04174539, -0.0024729818, -0.101908565, -0.026240062, 0.11836339, 0.00268682, 0.045571536, 0.0041554505, -0.004241263, 0.12222133, -0.006343091, 0.012304002, -0.083753236, 0.07701365, -0.0009840347, 0.14796565, -0.4711489, -0.0519737, -0.15788125, 0.0002755529, -0.0077075846, 0.007240483, 0.018535195, 0.08849716, 0.07832656, 0.25940213, -0.15908371, -0.018333694, 0.09776933, -0.0021532828, 0.01825154, -0.00082640833, -0.019493783, -0.0052156425, -0.5301783, -0.0022865694, 0.022415593, -0.27139398, -0.16703641, 0.20724614, -0.015433274, 0.010030747, 0.0730152, -0.2852987, 0.014545709, 0.15241668, -0.041394483, 0.07154786, 0.14114253, -0.0035733795, -0.5487235, -0.013348392, -0.31299022, -0.02646483, -0.005609926, 0.036923353, 0.07519202, -0.0016334424, 0.22888735, -0.23280841, -0.043486174, -0.013698673, -0.19895336, 0.102149285, -0.017433634, -0.5677295, -0.073404685, 0.006976581, -0.052732922, -0.01074706, 0.05967501, 0.08765664, -0.30647692, 0.021059845, -0.4226074, -0.14730737, 0.2587481, 0.39363465, 0.102539, -0.24820012, 0.01191672, 0.0028385276, -0.001737912, -0.15764868, 0.21577142, -0.10298583, -0.14957872, 0.1421202, 0.038965892, -0.028168436, -0.0024567451, 0.0369082, -0.061101608, -0.30425915, -0.09440479, -0.22348201, 0.4495048, 0.008842307, -0.014624111, -0.012102922, 0.0020650355, -0.00018116673, -0.02460313, 0.10971953, 0.019839443, 0.057128586, -0.032399524, 0.0017653402, 0.23927137, 0.033885952, 0.03788647, -0.06948406, 0.011518405, 0.011787239, -0.00017811786, 0.0018878753, 0.51695305, 0.0048932848, 0.122650556, -0.24073991, 0.017123085, 0.029591372, 0.12988618, -0.024308566, 0.5083795, -0.033466063, 0.1816474, -0.07816315, -0.0024437548, -0.09298309, 0.01774536, 0.003831867, -0.070919566, -0.27377647, 0.014124134, 0.005651362, 0.07065653, 0.040460497, -0.025636164, 0.0023911272, -0.0020636425, 0.07940663, 0.15970033, 0.0337441, 0.0035079853, 0.015125989, 0.13545841, 0.44630036, -0.028458057, 0.028712356, 0.37235203, -0.003933437, -0.018853188, 0.26555878, -0.15101174, 0.015427543, -0.006062723, 0.011380407, -0.015439771, 0.18224752, -0.16841204, 0.059491128, -0.023885507, 0.0050447937, -0.09512888, 0.12514177, -0.04933288, -0.100728534, 0.0075599165, -0.07172788, 0.026802342, 0.0036439393, 0.18099794, -0.36706728, -0.017949011, 0.61723775, 0.03943093, 0.031123446, 0.24884538, -0.056006495, -0.015499243, -0.03229425, -0.046897914, 0.10796833, -0.095541805, 0.23350218, -0.011783646, -0.13040748, -0.073136955, -0.0015597997, -0.040362492, 0.4049984, 0.18172204, 0.03633821, -0.0048916982, 0.27773032, -0.030208504, 0.18512164, 0.08492333, 0.008236716, -0.13583551, 0.022591429, 0.028816665, -0.028744318, 0.011558822, -0.019578835, 0.04434303, -0.0044318265, 0.11236317, -0.015548634, 0.011810165, -0.0010915296, -0.09883736, 0.36598322, -0.005118542, -0.034865625, -0.100126855, 0.00056231685, 0.12139021, -0.62537915, -0.18005577, 0.09804791, 0.033974208, 0.0034800938, -0.009210149, 0.45027515, 4.3446307e-05, -0.031476047, -0.14543615, 0.06582221, -0.0388411, 0.015565248, 0.10582939, 0.00501153, 0.008475789, -0.0012784465, 0.0122313695, -0.099796645, -0.056533318, -0.005667502, -0.015300778, -0.0077999686, -0.0125133945, -0.011786006, -0.025293753, 0.018681053, -0.04374175, 0.14659105, 0.010130177, 0.0150951585, 0.05142262, -0.010477099, -0.18232842, 0.0115882335, -0.006105039, -0.0023522035, -0.010725647, -0.012383934, -0.012977438, 0.025391754, -0.014534407, 0.08737286, 0.023381347, 0.05116748, 0.0058805696, -0.1107723, 0.017222468, -0.097314194, 0.05714459, -0.2430348, -0.2906532, 0.05769847, 0.020744687, 0.014818615, -0.007300466, 0.45600778, 0.028546102, 0.06950846, -0.015406387, -0.064086206, -0.023560781, 0.04614996, -0.03989349, 0.006023344, -0.07692389, -0.020292165, 0.005831034, -0.0060064388, 0.030881556, 0.33420578, -0.12025005, -0.058705397, -0.023558224, -0.05296562, 0.07114709, 0.114034675, -0.4324175, -0.017234618, 0.107575595, 0.07268527, -0.078486055, 0.0063685486, 0.11098088, 0.4295813, -0.07533969, 0.057587344, -0.009478807, -0.008039108, 0.48181748, 8.622748e-05, -0.008308021, -0.009563223, -0.013497165, -0.19076577, -0.0033399295, 0.024026033, -0.40134513, 0.28623578, 0.058170862, -0.24251592, 0.0760992, -0.12432632, 0.5945002, 0.09395975, -0.014700873, 0.021944575, 0.016237382, -0.011806979, -0.10725595, -0.10273183, 0.08154059, -0.16297236, 0.031095766, -0.19428854, 0.09648514, -0.16255948, 0.12096161, -0.14533226, 0.0699588, 0.05100238, -0.009807645, -0.02271732, -0.48581895, 0.016963072, -0.059728045, 0.050728336, 0.11238345, -0.012830805, 0.042448964, 0.00538944, 0.054828726, -0.008701444, -0.009846848, -0.0066355024, -0.0045119147, 0.005908123, 0.11716333, -0.10321486, -0.11752864, -0.02544753, 0.44280297, -0.04643356, -0.06159788, 0.005677844, -0.0014679244, 0.014268226, -0.017606393, 0.015258561, 0.06835432, -0.030898526, 0.1576164, -0.07429803, -0.015608642, 0.18831933, 0.059682906, -0.12631418, 0.025038298, -0.2829501, 0.004786767, 0.00083466776, 0.0048856135, -0.30012357, 0.058776632, 0.005163768, 0.020543851, 0.009132495, -0.07225359, 0.52806914, 0.01896776, 0.021434896, 0.09538152, -0.019519065, 0.00030793122, -0.12944922, 0.55475, -0.02054215, -0.015926886, 0.0049140025, 0.028215976, 0.02725951, -0.2119668, 0.11272601, 0.008878015, 0.065447465, -0.0074197324, -0.004442236, -0.27888197, 0.28016737, 0.0010603616, -0.06381551, 0.009672701, -0.019047549, -0.0010583224, -0.005293359, -0.1602437, 0.008681282, -0.009109794, 0.033066574, 0.37399203, -0.101473, 0.28287345, -0.014410533, 0.044332203, -0.025725525, 0.01920466, -0.09625306, -0.4802488, 0.10792362, 0.024305856, 0.007752456, 0.5450503, -0.13512209, 0.0051543782, 0.015839512, 0.03659893, 0.06354298, -0.09947106, -0.054074686, 0.009726012, -0.07398937, 0.0029122536, 0.16484758, 0.045585662, 0.2928457, -0.00021805614, -0.04443171, -0.08771239, -0.53070456, 0.004915876, -0.02117459, -0.008320965, 0.0025370666, 0.075598955, -0.07088221, -0.22632979, -0.0077218628, 0.031248821, -0.016367475, 0.29576075, -0.031257793, -0.35161272, 0.0058533917, 0.35971758, 0.109979965, 0.0018497475, -0.062183216, 0.06594506, 0.022941655, 0.004128262, -0.013122359, 0.11694385, 0.055344414, 0.00155328, 0.49106297, -0.18614261, 0.059244018, -0.09334221, -0.4441685, -0.674053, -0.036255587, -0.005253008, 0.0013286424, -0.1641782, 0.00199602, 0.0135101145, 0.14614934, 0.2202124, -0.1470887, -0.3635275, -0.07123555, 0.004388734, -0.061967142, -0.32386518, 0.007914742, 0.004536074, -0.09350193, 0.09267001, -0.08361313, -0.009617316, 0.03346107, 0.018051203, 0.005327203, 0.3256794, -0.013413015, 0.0062279324, -0.11273871, -0.07339191, 0.10035926, 0.015457344, -0.12059235, 0.2584504, -0.24750242, 0.28650504, 0.14328334, -0.0808519, -0.014869642, 0.05736285, 0.007917347, 0.06943734, 0.049865305, -0.0024336493, -0.40537804, 0.0009279028, 0.013492848, 0.040427815, 0.12280223, 0.012875233, -0.033320334, -0.1488226, -0.08652731, 0.38614124, -0.0022120627, -0.021383218, -0.004472462, 0.13010664, -0.027525445, 0.219185, 0.22705713, 0.06536723, -0.02301059, 0.11318231, -0.0021051283, 0.027242314, 0.00073621445, -0.022393946, 0.0040882155, 0.28619993, 0.0059160483, 0.019855881, -0.061235, 0.15954661, 0.32013133, -0.006689366, 0.019011438, 0.14905523, -0.48601475, -0.030730642, 0.05179576, 0.05605194, -0.08472654, -0.045263376, -0.011948884, 0.025799219, -0.01566688, -0.009901573, -0.028015181, -0.0060190293, -0.00029280785, -0.005012604, -0.014216596, -0.14291586, -0.15677452, 0.07974485, -0.0082504265, -0.002026494, -0.14494437, -0.017467381, -0.2962545, -0.12223132, 0.018538734, -0.006714547, -0.004120861, 0.09343754, 0.08889208, 0.017525101, 0.012271734, -0.59875345, 0.10654013, 0.08249787, 0.22411862, -0.027077708, -0.11249807, 0.017824925, -0.06793834, -0.08740737, -0.17585456, -0.091040485, -0.07702703, 0.16223478, 0.14749052, 0.037221957, -0.0608311, -0.0003399001, 0.13375127, -0.13334565, -0.29186666, 0.061599333, 5.3371357e-05, 0.22322316, -0.2588548, -0.00013265859, 0.007903794, -0.003705495, 0.003998106, -0.003398721, 0.11347238, 0.026841614, -0.07843987, -0.20516548, 0.0063329106, 0.007706737, 0.1981375, -0.119617514, -0.039644655, 0.019233823, 0.17033233, 0.0061212736, -0.35847518, 0.55675215, -0.007303724, -0.24870618, 0.46170714, -0.11824196, -0.31421557, 0.098438196, 0.08912584, 0.04879946, 0.03289647, -0.6606619, 0.0867696, 0.032212444, -0.15293297, 0.02746517, -0.0063560484, -0.07473324, -0.06741428, 0.014072921, 0.016496694, -0.16741464, -0.05465593, 0.065544695, 0.097847305, -0.0058494266, -0.03557646, -0.15423569, 0.015789578, 0.021521963, 0.023678456, 0.028738262, 0.40104014, 0.10752464, -0.054338224, 0.45571658, 0.014466774, -0.026185187, 0.09684476, -0.106816396, 0.0034262433, -0.016733589, 0.0066762245, -0.009493199, 0.4047545, -0.21527408, -0.16951448, 0.09058908, -0.0013448773, 0.04194348, -0.12353193, 0.056192745, 0.009202781, 0.004490233, 0.08031233, 0.01414399, -0.38710505, -0.23625271, 0.6323786, 0.021447692, -0.78328425, -0.42497286, 0.20573005, 0.36357448, 0.049238853, -0.00088739744, -0.024060512, 0.48745817, 0.049773753, 0.16824473, 0.30768558, -0.011560208, -0.6595065, 0.20201486, 0.072251305, -0.24550337, 0.092891045, -0.08071121, -0.051993616, 0.0046051973, -0.3860747, 0.07247841, -0.0564677, -0.07654815, 0.0005720645, 0.11267017, -0.09277808 };

const float fc2_bias[10] = { -0.62861216, -0.3528074, -0.5811817, -0.16505587, -0.9332297, 0.30427036, -0.83750093, 0.057378754, 1.4710766, 0.7503518 };

#endif
